-0.0481669, 0.256899, 0.0704257, -0.166605, 0.0103907, 0.185665, -0.0387085, 0.158582, 0.0559951, 0.079611, -0.0373596, 0.0403758, 0.170574, -0.0364939, 0.137719, -0.100004, 0.0738337, -0.00970085, 0.151596, 0.162308, 0.0816118, -0.0261575, 0.0499741, -0.101683, -0.095848, 0.0208922, -0.0692541, 0.0751884, 0.0506065, 0.115293, -0.0795815, 0.0537204
0.0272017, 0.0271177, -0.077861, -0.31152, 0.0766605, 0.0753506, 0.129749, 0.178847, -0.0720557, 0.0777488, 0.141289, 0.0431583, -0.0617936, 0.33477, -0.126111, 0.0911171, 0.0151228, 0.113019, 0.0683479, -0.188542, -0.178366, 0.0084705, 0.214204, 0.00892384, -0.439228, -0.0645493, 0.175067, -0.135849, -0.115634, -0.139983, -0.170871, -0.0927359
-0.0109641, 0.101779, 0.126225, -0.0395601, 0.030595, 0.139581, -0.0734358, 0.158584, -0.153042, 0.101555, 0.0307718, 0.0377834, 0.0325351, 0.114483, 0.0579901, -0.0326379, 0.0518939, -0.0534995, 0.0132952, 0.195406, 0.00905758, 0.0896003, 0.107557, -0.0666632, -0.0904078, 0.0642288, -0.0282742, -0.0287205, 0.155993, -0.033404, 0.140893, 0.0779814
-0.0589957, 0.174439, -0.155496, -0.0365533, -0.162806, -0.167032, 0.0177694, -0.226709, -0.393509, -0.088781, -0.180056, -0.11604, 0.0879123, -0.245852, 0.254671, 0.169661, 0.0635286, 0.246049, 0.112112, -0.215643, 0.119461, 0.0273915, -0.132933, 0.051142, 0.340588, 0.0378496, -0.280375, -0.128706, 0.33575, 0.185155, 0.175916, -0.0123825
-0.135341, 0.0784266, -0.18636, -0.0479919, 0.159761, 0.0479943, -0.267099, 0.131271, 0.0621834, -0.0526627, 0.0296614, -0.0187738, 0.0645413, 0.0238886, -0.116474, -0.0720223, -0.0440788, -0.0160767, -0.0845889, -0.0389181, -0.151599, 0.104687, -0.102218, 0.105594, 0.00733396, -0.0723889, 0.158024, -0.0363431, -0.132002, -0.0276726, -0.122621, 0.269155
0.125082, -0.0420598, 0.164224, -0.0620377, 0.0426043, 0.0172523, 0.0498497, 0.192844, 0.21593, 0.157011, 0.104789, 0.0861589, 0.0997094, 0.0869827, -0.042232, 0.0174764, 0.00571538, 0.00241351, 0.100574, -0.0776081, 0.033287, -0.0502005, 0.13598, 0.0223079, -0.112797, 0.136554, -0.168622, -0.144829, 0.0344128, 0.0594483, -0.00644094, -0.144775
0.232171, 0.0931161, 0.00905019, -0.0230691, 0.113015, -0.188461, 0.139921, -0.0727383, -0.0952978, 0.0337035, -0.13999, 0.0173376, 0.0616452, -0.284047, 0.0707232, -0.011454, -0.0163535, 0.0980647, -0.124176, -0.0972095, 0.108392, 0.0593062, -0.0160725, -0.00101557, -0.0164472, -0.0771958, -0.0728238, -0.258436, -0.205874, 0.0318449, -0.0403836, -0.101778
-0.0607047, 0.188012, 0.120096, -0.212557, 0.132362, 0.010653, -0.0747223, -0.132414, -0.129137, 0.119714, 0.0472337, -0.048824, 0.150977, -0.337773, 0.0598167, 0.23948, -0.100892, -0.181803, -0.166644, 0.213309, 0.070326, 0.0449294, -0.0978127, 0.171101, 0.341052, 0.106057, 0.153055, 0.105039, -0.0381655, 0.00697644, 0.0117629, 0.100472
0.00150613, -0.482337, -0.0476724, 0.106027, -0.0124963, 0.230151, -0.312648, -0.22854, -0.00167051, 0.0100954, -0.167655, 0.530717, -0.0261313, 0.167285, 0.17154, -0.525283, -0.185491, -0.198184, 0.127693, 0.0488045, -0.68502, -0.222438, 0.0548674, 0.112155, -0.421835, -0.206501, -0.0549854, -0.100341, -0.0794133, 0.337771, 0.0659581, 0.391619
0.0559945, 0.3105, -0.0782458, 0.335587, -0.255754, -0.0987523, 0.129428, 0.0411518, 0.188377, -0.0824523, -0.1149, 0.0419636, -0.232855, -0.130574, -0.0535083, -0.214881, 0.110537, 0.103397, 0.0777354, 0.19312, -0.194878, 0.0457074, -0.0229331, -0.210724, -0.406561, 0.108232, -0.270636, 0.0156668, -0.460607, -0.0492553, 0.172106, -0.104995
0.166178, 0.147683, -0.112755, 0.221869, -0.0645332, 0.136547, -0.13268, -0.0922671, 0.218941, -0.101752, -0.213377, -0.000593226, -0.098676, -0.174724, -0.0922255, -0.0486291, 0.0768224, 0.0289319, -0.0215354, 0.188423, -0.0546154, 0.0227169, -0.196099, -0.088152, 0.100923, 0.0766438, -0.0651936, -0.0160234, -0.28397, 0.110831, 0.157698, 0.235628
-0.0560438, -0.2684, -0.26519, 0.0301163, -0.10537, 0.173167, 0.177254, -0.121045, -0.0327447, -0.170253, 0.126017, -0.0739505, -0.113744, -0.0893599, -0.00980329, -0.289876, 0.00345294, 0.116405, -0.132459, 0.10766, -0.205341, 0.0108869, -0.131015, -0.123074, -0.144359, 0.188729, 0.00316947, -0.0373794, -0.046149, -0.149003, -0.0527115, -0.169334
-0.131343, -0.46993, -0.254725, -0.0307244, -0.0243612, 0.153667, 0.42669, -0.254041, 0.0753987, -0.0435836, -0.178155, -0.328558, -0.158394, 0.181506, 0.549719, -0.399009, 0.247369, 0.123319, -0.0038844, -0.233124, -0.0837705, 0.0512656, 0.0987215, -0.0295211, -0.172598, -0.108338, 0.327231, 0.0014012, 0.0557074, -0.163013, 0.25285, -0.195609
-0.187762, 0.00590603, 0.40766, 0.355366, 0.0187478, -0.151666, -0.143351, -0.334099, 0.157781, 0.129652, -0.101561, 0.249856, -0.149545, 0.281434, 0.193989, 0.0707075, 0.0136956, 0.0694807, 0.0594901, -0.154738, 0.00302015, 0.0855775, 0.134488, -0.103423, 0.0461873, -0.0223215, -0.309917, -0.0820472, -0.359823, 0.0793601, 0.0167202, 0.0101036
0.076094, -0.23247, -0.336522, -0.0609747, 0.0669577, 0.291936, -0.103465, 0.0266604, -0.101518, -0.151913, -0.0706273, -0.0825469, 0.253985, -0.143418, 0.22329, -0.258645, 0.0871102, -0.110513, 0.146836, 0.0246436, -0.0302666, 0.14587, 0.102703, -0.112662, -0.0158785, -0.139093, -0.00357002, 0.0753096, 0.381991, -0.18337, 0.00929658, -0.0919614
-0.356214, 0.607572, -0.0657963, 0.0112447, -0.132181, -0.112877, -0.217688, -0.456501, 0.0824597, -0.0185522, 0.474657, 0.0649606, 0.000444715, -0.204322, -0.406527, 0.506315, 0.175135, 0.110923, -0.123317, 0.484753, -0.187508, 0.296578, -0.179654, -0.13592, 0.3066, 0.121662, -0.403139, -0.0153857, 0.0892626, 0.133277, -0.0445319, -0.129229
-0.0212924, -0.204818, -0.0576926, -0.227253, -0.15321, 0.00109839, 0.0743005, -0.0342917, -0.0132821, 0.0639348, 0.0885214, -0.126521, 0.174563, -0.25136, 0.00760716, -0.0232326, -0.0243291, -0.101919, 0.0988357, 0.432821, 0.18438, -0.181018, -0.102466, -0.04271, 0.411721, 0.257839, 0.0290798, -0.0493418, 0.329841, -9.21668e-05, 0.0695245, 0.0908475
0.0500698, 0.0364712, 0.162481, 0.024411, -0.0544201, 0.0571935, 0.047133, -0.114711, 0.014022, -0.0619444, 0.0117733, 0.00741204, 0.0977858, -0.0250094, -0.0319757, -0.115062, 0.191843, 0.0482485, -0.0200199, -0.106433, -0.116638, -0.0241083, 0.0375349, 0.0241522, 0.088491, 0.127479, 0.064427, -0.133219, -0.046639, -0.118733, 0.0786356, 0.113645
-0.119356, -0.0891043, 0.0387561, -0.0584325, -0.0804446, -0.0743567, -0.0418245, 0.121836, 0.170279, -0.170663, 0.1025, 0.122205, 0.260866, 0.0970397, -0.0652339, 0.0054315, 0.0337981, 0.0404352, -0.0338469, -0.104224, -0.0337897, 0.000288702, 0.0916794, 0.00773435, 0.0201785, -0.0490925, 0.0792684, -0.0322309, -0.0430842, -0.086147, -0.0283857, 0.0327703
0.101354, 0.023731, -0.200346, -0.0149531, -0.196227, 0.0624886, 0.0380212, -0.140439, -0.0810173, -0.078465, 0.132997, -0.0380515, -0.0352334, -0.108252, 0.141347, -0.18201, -0.0854157, 0.23857, -0.0575479, -0.25108, -0.155663, 0.165822, -0.144722, -0.0688387, 0.0733616, 0.0687319, -0.00529112, 0.181017, -0.0131239, 0.172843, 0.226885, -0.0074299
-0.0486743, -0.0521599, -0.0756284, 0.11344, 0.0284657, -0.0189683, -0.0746547, -0.0143645, -0.0363501, -0.0940085, -0.026748, 0.0385549, -0.0140395, -0.098558, -0.0193404, 0.155772, 0.0663291, 0.0435042, -0.13656, -0.00568601, -0.0133603, 0.0286965, 0.00144273, 0.0345975, 0.0637755, -0.0815207, 0.0889903, -0.0225413, -0.0379531, -0.152146, 0.0171742, 0.0368054
0.00428425, 0.153903, -0.055091, -0.0176585, 0.136596, 0.0108267, -0.10116, 0.19161, 0.072575, -0.0296242, -0.034716, -0.113195, -0.0425955, 0.0810322, 0.015222, -0.00469615, -0.00465114, -0.0957268, 0.147886, 0.104988, 0.124429, -0.0481861, 0.0731917, 0.0403229, -0.0962508, -0.115703, -0.0565528, -0.136234, 0.0647026, -0.0338353, -0.211075, 0.0940583
0.0519961, -0.270173, -0.153682, 0.149691, 0.0150166, 0.253482, -0.0362567, 0.152497, -0.0940829, -0.126662, 0.0058477, -0.112498, -0.0404522, 0.0598443, -0.0164964, -0.380493, 0.0406169, -0.00428254, -0.246472, 0.0819226, 0.0321927, -0.0319049, 0.117147, 0.17644, 0.00803789, -0.0868257, -0.0435145, -0.00569495, 0.302221, 0.0813963, -0.00278874, 0.113456
-0.0023822, 0.0160255, -0.177186, 0.0672511, 0.143857, -0.0787771, -0.0883929, 0.108909, 0.227476, 0.0685173, 0.076079, 0.158985, 0.0800212, -0.0914333, -0.0560571, 0.170976, 0.0375364, -0.138026, 0.00273998, 0.00350949, 0.0392726, -0.0334644, -0.157494, 0.0038971, -0.0283385, -0.126313, 0.0683211, 0.141382, -0.0866322, -0.0223102, -0.0206802, -0.0133901